Language model created by QuickLM on Mon Feb 22 07:40:19 EST 2016
Copyright (c) 1996-2010 Carnegie Mellon University and Alexander I. Rudnicky

The model is in standard ARPA format, designed by Doug Paul while he was at MITRE.

The code that was used to produce this language model is available in Open Source.
Please visit http://www.speech.cs.cmu.edu/tools/ for more information

The (fixed) discount mass is 0.5. The backoffs are computed using the ratio method.
This model based on a corpus of 30 sentences and 39 words

\data\
ngram 1=39
ngram 2=67
ngram 3=44

\1-grams:
-0.8492 </s> -0.3010
-0.8492 <s> -0.2324
-2.3263 BIAS -0.2348
-2.3263 CONTINUE -0.2348
-2.3263 DANCE -0.2990
-2.3263 DISCONNECT -0.2348
-2.3263 DS -0.2348
-2.0253 FILTER -0.2275
-2.3263 FIVE -0.2348
-2.3263 FRONT -0.2348
-2.3263 GO -0.2348
-2.3263 GRAVITY -0.2348
-2.0253 I -0.2969
-2.0253 IMPEDANCE -0.2969
-2.3263 INSERT -0.2348
-2.3263 IT -0.2348
-2.3263 LEFT -0.2348
-2.3263 LIKE -0.2948
-2.3263 LOOP -0.2348
-2.3263 MEAN -0.2990
-2.3263 OKAY -0.2348
-2.3263 OPEN -0.2990
-2.3263 PASSIVE -0.2990
-2.3263 PAUSE -0.2348
-2.3263 POLICY -0.2348
-2.3263 PRINT -0.2348
-2.3263 RECORD -0.2348
-1.8492 RESET -0.2324
-2.3263 ROBOT -0.2348
-2.3263 SEARCH -0.2348
-2.3263 SOCKET -0.2348
-2.0253 STOP -0.2348
-2.3263 TABLE -0.2348
-2.3263 TEACH -0.2948
-2.3263 TO -0.2348
-2.3263 TRAIN -0.2948
-2.3263 TWO -0.2348
-2.0253 WILL -0.2969
-1.8492 YOU -0.2324

\2-grams:
-1.7782 <s> CONTINUE 0.0000
-1.7782 <s> DANCE 0.0000
-1.7782 <s> DISCONNECT 0.0000
-1.4771 <s> FILTER 0.0000
-1.7782 <s> FRONT 0.0000
-1.7782 <s> GO 0.0000
-1.7782 <s> GRAVITY 0.0000
-1.4771 <s> I 0.0000
-1.4771 <s> IMPEDANCE 0.0000
-1.7782 <s> INSERT 0.0000
-1.7782 <s> LEFT 0.0000
-1.7782 <s> OKAY 0.0000
-1.7782 <s> OPEN 0.0000
-1.7782 <s> PASSIVE 0.0000
-1.7782 <s> PAUSE 0.0000
-1.7782 <s> POLICY 0.0000
-1.7782 <s> PRINT 0.0000
-1.7782 <s> RECORD 0.0000
-1.4771 <s> RESET 0.0000
-1.7782 <s> ROBOT 0.0000
-1.7782 <s> SEARCH 0.0000
-1.7782 <s> SOCKET 0.0000
-1.4771 <s> STOP 0.0000
-1.7782 <s> TABLE 0.0000
-1.7782 <s> TO 0.0000
-0.3010 BIAS </s> -0.3010
-0.3010 CONTINUE </s> -0.3010
-0.3010 DANCE LIKE 0.0000
-0.3010 DISCONNECT </s> -0.3010
-0.3010 DS </s> -0.3010
-0.6021 FILTER </s> -0.3010
-0.6021 FILTER RESET -0.1249
-0.3010 FIVE </s> -0.3010
-0.3010 FRONT </s> -0.3010
-0.3010 GO </s> -0.3010
-0.3010 GRAVITY </s> -0.3010
-0.3010 I WILL 0.0000
-0.6021 IMPEDANCE FIVE 0.0000
-0.6021 IMPEDANCE TWO 0.0000
-0.3010 INSERT </s> -0.3010
-0.3010 IT </s> -0.3010
-0.3010 LEFT </s> -0.3010
-0.3010 LIKE YOU -0.2218
-0.3010 LOOP </s> -0.3010
-0.3010 MEAN IT 0.0000
-0.3010 OKAY </s> -0.3010
-0.3010 OPEN LOOP 0.0000
-0.3010 PASSIVE DS 0.0000
-0.3010 PAUSE </s> -0.3010
-0.3010 POLICY </s> -0.3010
-0.3010 PRINT </s> -0.3010
-0.3010 RECORD </s> -0.3010
-0.4771 RESET </s> -0.3010
-0.7782 RESET BIAS 0.0000
-0.3010 ROBOT </s> -0.3010
-0.3010 SEARCH </s> -0.3010
-0.3010 SOCKET </s> -0.3010
-0.3010 STOP </s> -0.3010
-0.3010 TABLE </s> -0.3010
-0.3010 TEACH YOU -0.1249
-0.3010 TO </s> -0.3010
-0.3010 TRAIN YOU -0.1249
-0.3010 TWO </s> -0.3010
-0.6021 WILL TEACH 0.0000
-0.6021 WILL TRAIN 0.0000
-0.4771 YOU </s> -0.3010
-0.7782 YOU MEAN 0.0000

\3-grams:
-0.3010 <s> CONTINUE </s>
-0.3010 <s> DANCE LIKE
-0.3010 <s> DISCONNECT </s>
-0.6021 <s> FILTER </s>
-0.6021 <s> FILTER RESET
-0.3010 <s> FRONT </s>
-0.3010 <s> GO </s>
-0.3010 <s> GRAVITY </s>
-0.3010 <s> I WILL
-0.6021 <s> IMPEDANCE FIVE
-0.6021 <s> IMPEDANCE TWO
-0.3010 <s> INSERT </s>
-0.3010 <s> LEFT </s>
-0.3010 <s> OKAY </s>
-0.3010 <s> OPEN LOOP
-0.3010 <s> PASSIVE DS
-0.3010 <s> PAUSE </s>
-0.3010 <s> POLICY </s>
-0.3010 <s> PRINT </s>
-0.3010 <s> RECORD </s>
-0.6021 <s> RESET </s>
-0.6021 <s> RESET BIAS
-0.3010 <s> ROBOT </s>
-0.3010 <s> SEARCH </s>
-0.3010 <s> SOCKET </s>
-0.3010 <s> STOP </s>
-0.3010 <s> TABLE </s>
-0.3010 <s> TO </s>
-0.3010 DANCE LIKE YOU
-0.3010 FILTER RESET </s>
-0.6021 I WILL TEACH
-0.6021 I WILL TRAIN
-0.3010 IMPEDANCE FIVE </s>
-0.3010 IMPEDANCE TWO </s>
-0.3010 LIKE YOU MEAN
-0.3010 MEAN IT </s>
-0.3010 OPEN LOOP </s>
-0.3010 PASSIVE DS </s>
-0.3010 RESET BIAS </s>
-0.3010 TEACH YOU </s>
-0.3010 TRAIN YOU </s>
-0.3010 WILL TEACH YOU
-0.3010 WILL TRAIN YOU
-0.3010 YOU MEAN IT

\end\
