Language model created by QuickLM on Tue Jan 19 03:29:51 EST 2016
Copyright (c) 1996-2010 Carnegie Mellon University and Alexander I. Rudnicky

The model is in standard ARPA format, designed by Doug Paul while he was at MITRE.

The code that was used to produce this language model is available in Open Source.
Please visit http://www.speech.cs.cmu.edu/tools/ for more information

The (fixed) discount mass is 0.5. The backoffs are computed using the ratio method.
This model based on a corpus of 24 sentences and 32 words

\data\
ngram 1=32
ngram 2=54
ngram 3=35

\1-grams:
-0.8502 </s> -0.3010
-0.8502 <s> -0.2349
-2.2304 BIAS -0.2349
-2.2304 CONTINUE -0.2349
-2.2304 DANCE -0.2985
-2.2304 DISCONNECT -0.2349
-2.2304 FIVE -0.2349
-2.2304 FRONT -0.2349
-2.2304 GO -0.2349
-2.2304 GRAVITY -0.2349
-1.9294 I -0.2959
-1.9294 IMPEDANCE -0.2959
-2.2304 INSERT -0.2349
-2.2304 IT -0.2349
-2.2304 LEFT -0.2349
-2.2304 LIKE -0.2933
-2.2304 MEAN -0.2985
-2.2304 OKAY -0.2349
-2.2304 PAUSE -0.2349
-2.2304 PRINT -0.2349
-1.9294 RESET -0.2319
-2.2304 ROBOT -0.2349
-2.2304 SEARCH -0.2349
-2.2304 SOCKET -0.2349
-1.9294 STOP -0.2349
-2.2304 TABLE -0.2349
-2.2304 TEACH -0.2933
-2.2304 TO -0.2349
-2.2304 TRAIN -0.2933
-2.2304 TWO -0.2349
-1.9294 WILL -0.2959
-1.7533 YOU -0.2319

\2-grams:
-1.6812 <s> CONTINUE 0.0000
-1.6812 <s> DANCE 0.0000
-1.6812 <s> DISCONNECT 0.0000
-1.6812 <s> FRONT 0.0000
-1.6812 <s> GO 0.0000
-1.6812 <s> GRAVITY 0.0000
-1.3802 <s> I 0.0000
-1.3802 <s> IMPEDANCE 0.0000
-1.6812 <s> INSERT 0.0000
-1.6812 <s> LEFT 0.0000
-1.6812 <s> OKAY 0.0000
-1.6812 <s> PAUSE 0.0000
-1.6812 <s> PRINT 0.0000
-1.3802 <s> RESET 0.0000
-1.6812 <s> ROBOT 0.0000
-1.6812 <s> SEARCH 0.0000
-1.6812 <s> SOCKET 0.0000
-1.3802 <s> STOP 0.0000
-1.6812 <s> TABLE 0.0000
-1.6812 <s> TO 0.0000
-0.3010 BIAS </s> -0.3010
-0.3010 CONTINUE </s> -0.3010
-0.3010 DANCE LIKE 0.0000
-0.3010 DISCONNECT </s> -0.3010
-0.3010 FIVE </s> -0.3010
-0.3010 FRONT </s> -0.3010
-0.3010 GO </s> -0.3010
-0.3010 GRAVITY </s> -0.3010
-0.3010 I WILL 0.0000
-0.6021 IMPEDANCE FIVE 0.0000
-0.6021 IMPEDANCE TWO 0.0000
-0.3010 INSERT </s> -0.3010
-0.3010 IT </s> -0.3010
-0.3010 LEFT </s> -0.3010
-0.3010 LIKE YOU -0.2218
-0.3010 MEAN IT 0.0000
-0.3010 OKAY </s> -0.3010
-0.3010 PAUSE </s> -0.3010
-0.3010 PRINT </s> -0.3010
-0.6021 RESET </s> -0.3010
-0.6021 RESET BIAS 0.0000
-0.3010 ROBOT </s> -0.3010
-0.3010 SEARCH </s> -0.3010
-0.3010 SOCKET </s> -0.3010
-0.3010 STOP </s> -0.3010
-0.3010 TABLE </s> -0.3010
-0.3010 TEACH YOU -0.1249
-0.3010 TO </s> -0.3010
-0.3010 TRAIN YOU -0.1249
-0.3010 TWO </s> -0.3010
-0.6021 WILL TEACH 0.0000
-0.6021 WILL TRAIN 0.0000
-0.4771 YOU </s> -0.3010
-0.7782 YOU MEAN 0.0000

\3-grams:
-0.3010 <s> CONTINUE </s>
-0.3010 <s> DANCE LIKE
-0.3010 <s> DISCONNECT </s>
-0.3010 <s> FRONT </s>
-0.3010 <s> GO </s>
-0.3010 <s> GRAVITY </s>
-0.3010 <s> I WILL
-0.6021 <s> IMPEDANCE FIVE
-0.6021 <s> IMPEDANCE TWO
-0.3010 <s> INSERT </s>
-0.3010 <s> LEFT </s>
-0.3010 <s> OKAY </s>
-0.3010 <s> PAUSE </s>
-0.3010 <s> PRINT </s>
-0.6021 <s> RESET </s>
-0.6021 <s> RESET BIAS
-0.3010 <s> ROBOT </s>
-0.3010 <s> SEARCH </s>
-0.3010 <s> SOCKET </s>
-0.3010 <s> STOP </s>
-0.3010 <s> TABLE </s>
-0.3010 <s> TO </s>
-0.3010 DANCE LIKE YOU
-0.6021 I WILL TEACH
-0.6021 I WILL TRAIN
-0.3010 IMPEDANCE FIVE </s>
-0.3010 IMPEDANCE TWO </s>
-0.3010 LIKE YOU MEAN
-0.3010 MEAN IT </s>
-0.3010 RESET BIAS </s>
-0.3010 TEACH YOU </s>
-0.3010 TRAIN YOU </s>
-0.3010 WILL TEACH YOU
-0.3010 WILL TRAIN YOU
-0.3010 YOU MEAN IT

\end\
