Language model created by QuickLM on Sun May 22 05:59:14 EDT 2016
Copyright (c) 1996-2010 Carnegie Mellon University and Alexander I. Rudnicky

The model is in standard ARPA format, designed by Doug Paul while he was at MITRE.

The code that was used to produce this language model is available in Open Source.
Please visit http://www.speech.cs.cmu.edu/tools/ for more information

The (fixed) discount mass is 0.5. The backoffs are computed using the ratio method.
This model based on a corpus of 31 sentences and 40 words

\data\
ngram 1=40
ngram 2=69
ngram 3=45

\1-grams:
-0.8471 </s> -0.3010
-0.8471 <s> -0.2321
-2.3385 BIAS -0.2344
-2.3385 CONTINUE -0.2344
-2.3385 DANCE -0.2990
-2.3385 DISCONNECT -0.2344
-2.3385 DS -0.2344
-2.0374 FILTER -0.2274
-2.3385 FIVE -0.2344
-2.3385 FORWARD -0.2344
-2.3385 FRONT -0.2344
-2.3385 GO -0.2344
-2.3385 GRAVITY -0.2344
-2.0374 I -0.2970
-2.0374 IMPEDANCE -0.2970
-2.3385 INSERT -0.2344
-2.3385 IT -0.2344
-2.3385 LEFT -0.2344
-2.3385 LIKE -0.2950
-2.3385 LOOP -0.2344
-2.3385 MEAN -0.2990
-2.3385 OKAY -0.2344
-2.3385 OPEN -0.2990
-2.3385 PASSIVE -0.2990
-2.3385 PAUSE -0.2344
-2.3385 POLICY -0.2344
-2.3385 PRINT -0.2344
-2.3385 RECORD -0.2344
-1.8613 RESET -0.2321
-2.3385 ROBOT -0.2344
-2.3385 SEARCH -0.2344
-2.3385 SOCKET -0.2344
-2.0374 STOP -0.2344
-2.3385 TABLE -0.2344
-2.3385 TEACH -0.2950
-2.3385 TO -0.2344
-2.3385 TRAIN -0.2950
-2.3385 TWO -0.2344
-2.0374 WILL -0.2970
-1.8613 YOU -0.2321

\2-grams:
-1.7924 <s> CONTINUE 0.0000
-1.7924 <s> DANCE 0.0000
-1.7924 <s> DISCONNECT 0.0000
-1.4914 <s> FILTER 0.0000
-1.7924 <s> FORWARD 0.0000
-1.7924 <s> FRONT 0.0000
-1.7924 <s> GO 0.0000
-1.7924 <s> GRAVITY 0.0000
-1.4914 <s> I 0.0000
-1.4914 <s> IMPEDANCE 0.0000
-1.7924 <s> INSERT 0.0000
-1.7924 <s> LEFT 0.0000
-1.7924 <s> OKAY 0.0000
-1.7924 <s> OPEN 0.0000
-1.7924 <s> PASSIVE 0.0000
-1.7924 <s> PAUSE 0.0000
-1.7924 <s> POLICY 0.0000
-1.7924 <s> PRINT 0.0000
-1.7924 <s> RECORD 0.0000
-1.4914 <s> RESET 0.0000
-1.7924 <s> ROBOT 0.0000
-1.7924 <s> SEARCH 0.0000
-1.7924 <s> SOCKET 0.0000
-1.4914 <s> STOP 0.0000
-1.7924 <s> TABLE 0.0000
-1.7924 <s> TO 0.0000
-0.3010 BIAS </s> -0.3010
-0.3010 CONTINUE </s> -0.3010
-0.3010 DANCE LIKE 0.0000
-0.3010 DISCONNECT </s> -0.3010
-0.3010 DS </s> -0.3010
-0.6021 FILTER </s> -0.3010
-0.6021 FILTER RESET -0.1249
-0.3010 FIVE </s> -0.3010
-0.3010 FORWARD </s> -0.3010
-0.3010 FRONT </s> -0.3010
-0.3010 GO </s> -0.3010
-0.3010 GRAVITY </s> -0.3010
-0.3010 I WILL 0.0000
-0.6021 IMPEDANCE FIVE 0.0000
-0.6021 IMPEDANCE TWO 0.0000
-0.3010 INSERT </s> -0.3010
-0.3010 IT </s> -0.3010
-0.3010 LEFT </s> -0.3010
-0.3010 LIKE YOU -0.2218
-0.3010 LOOP </s> -0.3010
-0.3010 MEAN IT 0.0000
-0.3010 OKAY </s> -0.3010
-0.3010 OPEN LOOP 0.0000
-0.3010 PASSIVE DS 0.0000
-0.3010 PAUSE </s> -0.3010
-0.3010 POLICY </s> -0.3010
-0.3010 PRINT </s> -0.3010
-0.3010 RECORD </s> -0.3010
-0.4771 RESET </s> -0.3010
-0.7782 RESET BIAS 0.0000
-0.3010 ROBOT </s> -0.3010
-0.3010 SEARCH </s> -0.3010
-0.3010 SOCKET </s> -0.3010
-0.3010 STOP </s> -0.3010
-0.3010 TABLE </s> -0.3010
-0.3010 TEACH YOU -0.1249
-0.3010 TO </s> -0.3010
-0.3010 TRAIN YOU -0.1249
-0.3010 TWO </s> -0.3010
-0.6021 WILL TEACH 0.0000
-0.6021 WILL TRAIN 0.0000
-0.4771 YOU </s> -0.3010
-0.7782 YOU MEAN 0.0000

\3-grams:
-0.3010 <s> CONTINUE </s>
-0.3010 <s> DANCE LIKE
-0.3010 <s> DISCONNECT </s>
-0.6021 <s> FILTER </s>
-0.6021 <s> FILTER RESET
-0.3010 <s> FORWARD </s>
-0.3010 <s> FRONT </s>
-0.3010 <s> GO </s>
-0.3010 <s> GRAVITY </s>
-0.3010 <s> I WILL
-0.6021 <s> IMPEDANCE FIVE
-0.6021 <s> IMPEDANCE TWO
-0.3010 <s> INSERT </s>
-0.3010 <s> LEFT </s>
-0.3010 <s> OKAY </s>
-0.3010 <s> OPEN LOOP
-0.3010 <s> PASSIVE DS
-0.3010 <s> PAUSE </s>
-0.3010 <s> POLICY </s>
-0.3010 <s> PRINT </s>
-0.3010 <s> RECORD </s>
-0.6021 <s> RESET </s>
-0.6021 <s> RESET BIAS
-0.3010 <s> ROBOT </s>
-0.3010 <s> SEARCH </s>
-0.3010 <s> SOCKET </s>
-0.3010 <s> STOP </s>
-0.3010 <s> TABLE </s>
-0.3010 <s> TO </s>
-0.3010 DANCE LIKE YOU
-0.3010 FILTER RESET </s>
-0.6021 I WILL TEACH
-0.6021 I WILL TRAIN
-0.3010 IMPEDANCE FIVE </s>
-0.3010 IMPEDANCE TWO </s>
-0.3010 LIKE YOU MEAN
-0.3010 MEAN IT </s>
-0.3010 OPEN LOOP </s>
-0.3010 PASSIVE DS </s>
-0.3010 RESET BIAS </s>
-0.3010 TEACH YOU </s>
-0.3010 TRAIN YOU </s>
-0.3010 WILL TEACH YOU
-0.3010 WILL TRAIN YOU
-0.3010 YOU MEAN IT

\end\
